{
  "input_nodes": 5,
  "hidden_nodes": 8,
  "output_nodes": 2,
  "weights_ih": {
    "rows": 8,
    "cols": 5,
    "data": [
      [
        -0.7775202850153402,
        -0.604004991833679,
        0.8753234955503189,
        0.7953580972390684,
        1.3624432186122584
      ],
      [
        0.669701040369044,
        -0.31289537558165426,
        -1.043194638645194,
        -1.4772072340168276,
        -0.7525098725460025
      ],
      [
        -0.6003226681826008,
        -0.707344361673312,
        -1.003489424518393,
        0.18885600129955912,
        0.9136307140270681
      ],
      [
        -0.9396014438641961,
        -0.8013572459031191,
        -0.9622018889602779,
        1.1052169421057971,
        -0.8530576618728472
      ],
      [
        -1.1502014559058142,
        0.08273316251831675,
        -1.1221948901999914,
        -0.19009811184126724,
        0.21165808434831512
      ],
      [
        -2.4907957138516195,
        0.6403601352671191,
        0.7594102681279026,
        0.4594425259945224,
        0.26976233210705663
      ],
      [
        0.9318223721871464,
        -0.4618394571902399,
        -0.27686120629592126,
        0.5297395731000736,
        1.3777150444232853
      ],
      [
        0.5724415357400741,
        -0.2663305643735552,
        0.06191876401990726,
        -0.7416743357850485,
        -1.2882136996078446
      ]
    ]
  },
  "weights_ho": {
    "rows": 2,
    "cols": 8,
    "data": [
      [
        -1.7820097902657455,
        1.1882773195053278,
        -1.1091811538743197,
        -0.04393754434888037,
        1.2018926620105002,
        0.7849030019667274,
        -0.23742796812431877,
        1.5271117585651768
      ],
      [
        1.1215461365620238,
        -0.16172183287850583,
        -1.108692347389149,
        -0.4013765336250368,
        -0.5721856458648733,
        0.9467972477728055,
        -0.5683287442955511,
        -0.2089738414976101
      ]
    ]
  },
  "bias_h": {
    "rows": 8,
    "cols": 1,
    "data": [
      [
        0.25758983690194315
      ],
      [
        0.3723205267643932
      ],
      [
        -0.40706426859165634
      ],
      [
        -1.4424333416401436
      ],
      [
        0.6382180116241657
      ],
      [
        -2.2434376756185457
      ],
      [
        -0.7139350266084353
      ],
      [
        0.5306419079118557
      ]
    ]
  },
  "bias_o": {
    "rows": 2,
    "cols": 1,
    "data": [
      [
        0.5851353793467189
      ],
      [
        -0.08134047260057117
      ]
    ]
  },
  "learning_rate": 0.1,
  "activation_function": {}
}
