{
  "input_nodes": 5,
  "hidden_nodes": 8,
  "output_nodes": 2,
  "weights_ih": {
    "rows": 8,
    "cols": 5,
    "data": [
      [
        2.093170854391192,
        -1.3928797007064886,
        -1.6179832941403829,
        2.2557033755538423,
        -0.046315326677258364
      ],
      [
        4.519572997392379,
        -2.4288571663139997,
        0.07523237808403671,
        -0.7316516533106145,
        -4.081848078575747
      ],
      [
        1.6081325730641434,
        -0.7316924311040445,
        -0.3673117220407599,
        3.305687830379269,
        1.4497341103388104
      ],
      [
        -1.9407133527055314,
        1.4663252755392966,
        -3.2684757895430248,
        0.3260591867600746,
        -1.5456579148902883
      ],
      [
        -1.5933175338191525,
        -5.419600275437298,
        -1.2797328197445639,
        -1.2087707044584424,
        0.2450124702096385
      ],
      [
        0.16582782578334798,
        0.8677193098703466,
        1.6758036674155812,
        0.5159494147310151,
        3.493653694654675
      ],
      [
        3.30532540178265,
        -0.3293978949830679,
        -2.6735331878190416,
        -2.986603914330309,
        1.8959861357121053
      ],
      [
        -0.19743680121604823,
        0.62046168835755,
        -2.2702717763614855,
        1.6725652867413774,
        1.7990421683520195
      ]
    ]
  },
  "weights_ho": {
    "rows": 2,
    "cols": 8,
    "data": [
      [
        -2.4117077716607236,
        3.3453131060977768,
        0.34303545261432705,
        1.4828823633414228,
        -2.258803791551364,
        -0.1786857071701177,
        -0.004475912268580427,
        -0.36753038010007905
      ],
      [
        1.2230825775393361,
        1.2566842767882178,
        0.8180966808269765,
        -2.4881755941187693,
        2.9808507094406753,
        0.8922641871540263,
        -1.438898827128158,
        -1.1877955703182557
      ]
    ]
  },
  "bias_h": {
    "rows": 8,
    "cols": 1,
    "data": [
      [
        0.6356884208106327
      ],
      [
        0.7379732177046056
      ],
      [
        1.192477121079342
      ],
      [
        -0.5833432532781926
      ],
      [
        -0.5247708630969642
      ],
      [
        -3.3624568239809696
      ],
      [
        1.216558824922709
      ],
      [
        2.519785236162145
      ]
    ]
  },
  "bias_o": {
    "rows": 2,
    "cols": 1,
    "data": [
      [
        1.4233199946166788
      ],
      [
        -0.629538283517703
      ]
    ]
  },
  "learning_rate": 0.1,
  "activation_function": {}
}
