{
  "puck": {
    "x": 626.2048406935442,
    "y": 325.8806515757386,
    "xspeed": 16.691566876958408,
    "yspeed": 10.774472402421642,
    "speed": 20,
    "r": 12
  },
  "left": {
    "y": 211,
    "w": 20,
    "h": 100,
    "ychange": 7,
    "score": 24730729,
    "fitness": 0.902369293580972,
    "isLeft": true,
    "x": 20,
    "brain": {
      "input_nodes": 3,
      "hidden_nodes": 6,
      "output_nodes": 1,
      "weights_ih": {
        "rows": 6,
        "cols": 3,
        "data": [
          [
            1.7894321985775377,
            -2.2878330597929266,
            0.6775570491548886
          ],
          [
            1.4507526734081053,
            7.507744236818895,
            -7.368723300239381
          ],
          [
            -4.2912593475270056,
            5.991950679478837,
            -5.654017392441953
          ],
          [
            -2.1236811821241366,
            2.651819797762549,
            -3.8212710696552397
          ],
          [
            -5.4343683215241345,
            -8.360971314109443,
            -1.8593367121082038
          ],
          [
            4.105481714372842,
            0.6657083989917806,
            -0.8233131453467301
          ]
        ]
      },
      "weights_ho": {
        "rows": 1,
        "cols": 6,
        "data": [
          [
            0.7909220864865932,
            -7.382641390098525,
            0.1685144600285437,
            -0.3953977039718706,
            -1.2306551235390604,
            -0.10525206078346483
          ]
        ]
      },
      "bias_h": {
        "rows": 6,
        "cols": 1,
        "data": [
          [
            2.4321943304862224
          ],
          [
            -1.3003161713923947
          ],
          [
            -1.0264095856166644
          ],
          [
            -1.0001863876204151
          ],
          [
            -2.463036589427892
          ],
          [
            -4.090525034951274
          ]
        ]
      },
      "bias_o": {
        "rows": 1,
        "cols": 1,
        "data": [
          [
            1.7836144978299644
          ]
        ]
      },
      "learning_rate": 0.1,
      "activation_function": {}
    }
  },
  "right": {
    "y": 197,
    "w": 20,
    "h": 100,
    "ychange": 7,
    "score": 24730729,
    "fitness": 0.9024771702449094,
    "isLeft": false,
    "x": 580,
    "brain": {
      "input_nodes": 3,
      "hidden_nodes": 6,
      "output_nodes": 1,
      "weights_ih": {
        "rows": 6,
        "cols": 3,
        "data": [
          [
            -1.5348874430682156,
            1.1430339752418557,
            4.376949229257104
          ],
          [
            -2.1975577288381465,
            -2.975420748549152,
            4.007055040370102
          ],
          [
            3.7809952954853285,
            -1.8110605228507652,
            0.6121067889946155
          ],
          [
            1.0758382979788552,
            3.1023829838815105,
            0.5344009782610204
          ],
          [
            0.7435013249487663,
            2.9331113275741325,
            -2.822405008329654
          ],
          [
            2.9991415831017916,
            0.4903225000159437,
            -1.7070167767110143
          ]
        ]
      },
      "weights_ho": {
        "rows": 1,
        "cols": 6,
        "data": [
          [
            -0.32850860553770905,
            4.638362008438813,
            0.05508825275548394,
            -1.2774583773389738,
            -5.561613708265118,
            3.0865509955593353
          ]
        ]
      },
      "bias_h": {
        "rows": 6,
        "cols": 1,
        "data": [
          [
            4.6521100525960275
          ],
          [
            0.3055778915237137
          ],
          [
            -0.8005936451565121
          ],
          [
            -0.2777630747901013
          ],
          [
            -0.4447337644917816
          ],
          [
            -1.706452059861359
          ]
        ]
      },
      "bias_o": {
        "rows": 1,
        "cols": 1,
        "data": [
          [
            1.1746937990823227
          ]
        ]
      },
      "learning_rate": 0.1,
      "activation_function": {}
    }
  }
}
