{
  "puck": {
    "x": 618.2134337918899,
    "y": 313.41530552577825,
    "xspeed": 11.524268675837808,
    "yspeed": 16.224039623026364,
    "speed": 20,
    "r": 12
  },
  "left": {
    "y": 210,
    "w": 20,
    "h": 100,
    "ychange": 7,
    "score": 528632064,
    "fitness": 0.7329406443391188,
    "isLeft": true,
    "x": 20,
    "brain": {
      "input_nodes": 3,
      "hidden_nodes": 6,
      "output_nodes": 1,
      "weights_ih": {
        "rows": 6,
        "cols": 3,
        "data": [
          [
            -2.341580162876732,
            0.03610911146810565,
            -0.25433735262585433
          ],
          [
            -3.1697454849794275,
            2.8002712589646803,
            -2.275244803776753
          ],
          [
            -0.21325325149646718,
            -1.590489786986393,
            7.57327922853619
          ],
          [
            3.5942658581592486,
            0.06505688837511314,
            -2.591609277655072
          ],
          [
            2.2135530100615144,
            6.967496853336142,
            -5.21956475759611
          ],
          [
            -0.03504808451316421,
            5.50113047579346,
            -4.075305291730083
          ]
        ]
      },
      "weights_ho": {
        "rows": 1,
        "cols": 6,
        "data": [
          [
            1.668722644210718,
            0.9898490493327303,
            0.974185766871607,
            -1.7013312403220695,
            -1.222491100076413,
            -8.174733607501587
          ]
        ]
      },
      "bias_h": {
        "rows": 6,
        "cols": 1,
        "data": [
          [
            3.1455468452514648
          ],
          [
            4.788407169363749
          ],
          [
            -3.4731035602858844
          ],
          [
            0.7320304426701714
          ],
          [
            -3.007958203522828
          ],
          [
            -1.310937761644737
          ]
        ]
      },
      "bias_o": {
        "rows": 1,
        "cols": 1,
        "data": [
          [
            1.4416408822402704
          ]
        ]
      },
      "learning_rate": 0.1,
      "activation_function": {}
    }
  },
  "right": {
    "y": 175,
    "w": 20,
    "h": 100,
    "ychange": 7,
    "score": 528586081,
    "fitness": 0.7328832292274363,
    "isLeft": false,
    "x": 580,
    "brain": {
      "input_nodes": 3,
      "hidden_nodes": 6,
      "output_nodes": 1,
      "weights_ih": {
        "rows": 6,
        "cols": 3,
        "data": [
          [
            2.74332554076407,
            -4.4624930796532665,
            -0.09169185280726666
          ],
          [
            2.400618166734175,
            -0.04653684372183403,
            1.5667185734886164
          ],
          [
            1.9272260234720227,
            5.0492253197760215,
            -6.282881645471211
          ],
          [
            3.2867449841844336,
            -2.8997306804602854,
            3.714139340129587
          ],
          [
            1.7741503857883054,
            -5.92818510074931,
            2.966118699044489
          ],
          [
            4.272810955856287,
            5.712471283117475,
            -3.0250777711293133
          ]
        ]
      },
      "weights_ho": {
        "rows": 1,
        "cols": 6,
        "data": [
          [
            3.378024326953981,
            2.6824391409711796,
            -10.032786110717298,
            1.1889115185677674,
            2.0769228648366975,
            0.606230200138967
          ]
        ]
      },
      "bias_h": {
        "rows": 6,
        "cols": 1,
        "data": [
          [
            -1.702246809474206
          ],
          [
            5.048781271745762
          ],
          [
            -0.7663313043321249
          ],
          [
            -5.500953781350689
          ],
          [
            -0.09366966313347197
          ],
          [
            3.3008152890925126
          ]
        ]
      },
      "bias_o": {
        "rows": 1,
        "cols": 1,
        "data": [
          [
            0.1989472953005854
          ]
        ]
      },
      "learning_rate": 0.1,
      "activation_function": {}
    }
  }
}
