{
  "input_nodes": 7,
  "hidden_nodes": 6,
  "output_nodes": 2,
  "weights_ih": {
    "rows": 6,
    "cols": 7,
    "data": [
      [
        -7.355030622293005,
        -5.4376735401149325,
        -2.5105607057364305,
        4.522481637403385,
        -3.043001048266156,
        8.715432948693298,
        -5.422047915023197
      ],
      [
        -9.03723459982757,
        8.234666952891072,
        4.577214827385904,
        -3.526465518678818,
        6.81573860053711,
        -2.3154252652882725,
        8.818576406343267
      ],
      [
        -9.889901035975004,
        -2.0692169996175918,
        0.20519162779546088,
        0.9449079369472053,
        0.34031296319561866,
        -4.363897422402024,
        10.58087871478122
      ],
      [
        -6.449720397508708,
        0.6038346220991664,
        2.818826739619629,
        -1.8714993396290642,
        -16.122880061137,
        5.667698169342224,
        7.854521671025451
      ],
      [
        11.205344976684364,
        -0.6156529098453546,
        0.11250292668722944,
        1.900075294562919,
        0.35151933200626884,
        2.7302692837336453,
        -10.399029821273652
      ],
      [
        -8.643654850918937,
        -2.6215438731258303,
        -2.3504703621849954,
        6.279119241668164,
        4.438748154780491,
        6.980879483548823,
        -10.021358303901856
      ]
    ]
  },
  "weights_ho": {
    "rows": 2,
    "cols": 6,
    "data": [
      [
        4.485562332832633,
        -9.813051566153133,
        -16.238470495462828,
        3.9751427364475336,
        9.202574489872806,
        1.4151837267167475
      ],
      [
        0.7562090801013448,
        -1.4462858312012632,
        1.9152695070254364,
        1.3931548606470687,
        -6.5089729446706945,
        -3.062405137389065
      ]
    ]
  },
  "bias_h": {
    "rows": 6,
    "cols": 1,
    "data": [
      [
        -1.7434359623362354
      ],
      [
        -0.9075410806060935
      ],
      [
        0.10896567320039782
      ],
      [
        -2.6521884843577066
      ],
      [
        -1.903163043512496
      ],
      [
        -6.296046352977058
      ]
    ]
  },
  "bias_o": {
    "rows": 2,
    "cols": 1,
    "data": [
      [
        3.5760702886257887
      ],
      [
        -5.197155751292651
      ]
    ]
  },
  "learning_rate": 0.1,
  "activation_function": {}
}
